FANN_FLO_2.1
num_layers=4
learning_rate=0.700000
connection_rate=1.000000
network_type=0
learning_momentum=0.000000
training_algorithm=2
train_error_function=1
train_stop_function=0
cascade_output_change_fraction=0.010000
quickprop_decay=-0.000100
quickprop_mu=1.750000
rprop_increase_factor=1.200000
rprop_decrease_factor=0.500000
rprop_delta_min=0.000000
rprop_delta_max=50.000000
rprop_delta_zero=0.100000
cascade_output_stagnation_epochs=12
cascade_candidate_change_fraction=0.010000
cascade_candidate_stagnation_epochs=12
cascade_max_out_epochs=150
cascade_min_out_epochs=50
cascade_max_cand_epochs=150
cascade_min_cand_epochs=50
cascade_num_candidate_groups=2
bit_fail_limit=3.49999994039535522461e-01
cascade_candidate_limit=1.00000000000000000000e+03
cascade_weight_multiplier=4.00000005960464477539e-01
cascade_activation_functions_count=10
cascade_activation_functions=3 5 7 8 10 11 14 15 16 17 
cascade_activation_steepnesses_count=4
cascade_activation_steepnesses=2.50000000000000000000e-01 5.00000000000000000000e-01 7.50000000000000000000e-01 1.00000000000000000000e+00 
layer_sizes=6 11 6 2 
scale_included=0
neurons (num_inputs, activation_function, activation_steepness)=(0, 0, 0.00000000000000000000e+00) (0, 0, 0.00000000000000000000e+00) (0, 0, 0.00000000000000000000e+00) (0, 0, 0.00000000000000000000e+00) (0, 0, 0.00000000000000000000e+00) (0, 0, 0.00000000000000000000e+00) (6, 5, 5.00000000000000000000e-01) (6, 5, 5.00000000000000000000e-01) (6, 5, 5.00000000000000000000e-01) (6, 5, 5.00000000000000000000e-01) (6, 5, 5.00000000000000000000e-01) (6, 5, 5.00000000000000000000e-01) (6, 5, 5.00000000000000000000e-01) (6, 5, 5.00000000000000000000e-01) (6, 5, 5.00000000000000000000e-01) (6, 5, 5.00000000000000000000e-01) (0, 5, 0.00000000000000000000e+00) (11, 5, 5.00000000000000000000e-01) (11, 5, 5.00000000000000000000e-01) (11, 5, 5.00000000000000000000e-01) (11, 5, 5.00000000000000000000e-01) (11, 5, 5.00000000000000000000e-01) (0, 5, 0.00000000000000000000e+00) (6, 3, 5.00000000000000000000e-01) (0, 3, 0.00000000000000000000e+00) 
connections (connected_to_neuron, weight)=(0, 6.12794876098632812500e+01) (1, -1.33178818225860595703e+00) (2, 1.80466449260711669922e+00) (3, 6.44895706176757812500e+01) (4, -1.13708181381225585938e+01) (5, -2.16850128173828125000e+01) (0, 1.94713268280029296875e+01) (1, -5.70326709747314453125e+00) (2, -5.81874542236328125000e+01) (3, 3.56368530273437500000e+02) (4, -4.09540939331054687500e+01) (5, 4.70382261276245117188e+00) (0, 2.77306537628173828125e+01) (1, 3.58632087707519531250e-01) (2, 1.62363803386688232422e+00) (3, -2.32043838500976562500e+01) (4, -1.99493370056152343750e+01) (5, -6.83375310897827148438e+00) (0, 2.66462135314941406250e+01) (1, -1.24061880111694335938e+01) (2, -1.01111160278320312500e+02) (3, 7.16847839355468750000e+02) (4, -3.66976890563964843750e+01) (5, -5.26532936096191406250e+01) (0, -1.48649279785156250000e+03) (1, -7.85324430465698242188e+00) (2, -4.00103607177734375000e+02) (3, -1.42065258789062500000e+03) (4, -9.79998245239257812500e+01) (5, -4.74213638305664062500e+01) (0, -5.28840348124504089355e-02) (1, 1.10384598374366760254e-02) (2, 6.35929731652140617371e-03) (3, -5.30941307544708251953e-01) (4, -5.13566255569458007812e+00) (5, 1.55754542350769042969e+00) (0, -1.43385916948318481445e-01) (1, 1.04894369840621948242e-01) (2, -2.18221694231033325195e-01) (3, -2.23637435913085937500e+02) (4, 6.92123556137084960938e+00) (5, -8.65922987461090087891e-01) (0, -6.20645618438720703125e+00) (1, 8.98843612670898437500e+01) (2, -5.09491806030273437500e+01) (3, -3.11670715332031250000e+02) (4, 3.89601623535156250000e+02) (5, 1.93524038791656494141e+00) (0, -5.67815132141113281250e+01) (1, 9.72177795410156250000e+02) (2, 3.04222015380859375000e+02) (3, -1.45676940917968750000e+03) (4, -9.69661987304687500000e+02) (5, -5.66878547668457031250e+01) (0, -2.69842529296875000000e+02) (1, -7.86527832031250000000e+02) (2, 1.49063610839843750000e+03) (3, 1.43617675781250000000e+03) (4, -7.89096923828125000000e+02) (5, 2.33878280639648437500e+02) (6, 1.56139556884765625000e+02) (7, -1.73037757873535156250e+01) (8, 2.94020156860351562500e+01) (9, -2.30110239982604980469e+00) (10, 1.46493854522705078125e+01) (11, 2.12667495727539062500e+02) (12, 2.62612609863281250000e+02) (13, -3.90308914184570312500e+01) (14, -9.55795478820800781250e+00) (15, 9.40505886077880859375e+00) (16, 7.65399074554443359375e+00) (6, 1.10949726104736328125e+01) (7, 1.65430411696434020996e-01) (8, 7.27746868133544921875e+00) (9, 1.03566968441009521484e+00) (10, 1.88555355072021484375e+01) (11, 9.56837234497070312500e+01) (12, 6.57877826690673828125e+00) (13, -1.16467723846435546875e+01) (14, -8.42995643615722656250e-02) (15, 1.53253242373466491699e-01) (16, -2.09665989875793457031e+00) (6, 1.45680383300781250000e+03) (7, 1.49903100585937500000e+03) (8, -8.40283386230468750000e+02) (9, -3.36705383300781250000e+02) (10, -3.45282165527343750000e+02) (11, 1.44694262695312500000e+03) (12, 1.08545605468750000000e+03) (13, -1.48805822753906250000e+03) (14, -1.50000000000000000000e+03) (15, -1.44117565917968750000e+03) (16, -2.03478271484375000000e+02) (6, -6.61864700317382812500e+01) (7, 1.62291900634765625000e+02) (8, -2.97877254486083984375e+01) (9, 1.84500640869140625000e+02) (10, -2.84153823852539062500e+01) (11, -3.65182922363281250000e+02) (12, -2.12213836669921875000e+02) (13, 5.99655113220214843750e+01) (14, 9.87738966941833496094e-01) (15, 2.18114776611328125000e+01) (16, 6.20095348358154296875e+00) (6, 2.83002052307128906250e+01) (7, -4.09965362548828125000e+01) (8, -3.22170867919921875000e+01) (9, 2.40842361450195312500e+01) (10, -2.34988078474998474121e-01) (11, 1.36461715698242187500e+01) (12, 8.10788631439208984375e+00) (13, 2.94167251586914062500e+01) (14, 2.49441528320312500000e+01) (15, 1.41639385223388671875e+01) (16, -1.13212976455688476562e+01) (17, -1.98954737186431884766e+00) (18, -3.02209568023681640625e+00) (19, -7.83945545554161071777e-02) (20, 2.22415149211883544922e-01) (21, 2.17724725604057312012e-01) (22, -2.83587908744812011719e+00) 
