FANN_FLO_2.1
num_layers=4
learning_rate=0.700000
connection_rate=1.000000
network_type=0
learning_momentum=0.000000
training_algorithm=2
train_error_function=1
train_stop_function=0
cascade_output_change_fraction=0.010000
quickprop_decay=-0.000100
quickprop_mu=1.750000
rprop_increase_factor=1.200000
rprop_decrease_factor=0.500000
rprop_delta_min=0.000000
rprop_delta_max=50.000000
rprop_delta_zero=0.100000
cascade_output_stagnation_epochs=12
cascade_candidate_change_fraction=0.010000
cascade_candidate_stagnation_epochs=12
cascade_max_out_epochs=150
cascade_min_out_epochs=50
cascade_max_cand_epochs=150
cascade_min_cand_epochs=50
cascade_num_candidate_groups=2
bit_fail_limit=3.49999994039535522461e-01
cascade_candidate_limit=1.00000000000000000000e+03
cascade_weight_multiplier=4.00000005960464477539e-01
cascade_activation_functions_count=10
cascade_activation_functions=3 5 7 8 10 11 14 15 16 17 
cascade_activation_steepnesses_count=4
cascade_activation_steepnesses=2.50000000000000000000e-01 5.00000000000000000000e-01 7.50000000000000000000e-01 1.00000000000000000000e+00 
layer_sizes=6 11 6 2 
scale_included=0
neurons (num_inputs, activation_function, activation_steepness)=(0, 0, 0.00000000000000000000e+00) (0, 0, 0.00000000000000000000e+00) (0, 0, 0.00000000000000000000e+00) (0, 0, 0.00000000000000000000e+00) (0, 0, 0.00000000000000000000e+00) (0, 0, 0.00000000000000000000e+00) (6, 5, 5.00000000000000000000e-01) (6, 5, 5.00000000000000000000e-01) (6, 5, 5.00000000000000000000e-01) (6, 5, 5.00000000000000000000e-01) (6, 5, 5.00000000000000000000e-01) (6, 5, 5.00000000000000000000e-01) (6, 5, 5.00000000000000000000e-01) (6, 5, 5.00000000000000000000e-01) (6, 5, 5.00000000000000000000e-01) (6, 5, 5.00000000000000000000e-01) (0, 5, 0.00000000000000000000e+00) (11, 5, 5.00000000000000000000e-01) (11, 5, 5.00000000000000000000e-01) (11, 5, 5.00000000000000000000e-01) (11, 5, 5.00000000000000000000e-01) (11, 5, 5.00000000000000000000e-01) (0, 5, 0.00000000000000000000e+00) (6, 3, 5.00000000000000000000e-01) (0, 3, 0.00000000000000000000e+00) 
connections (connected_to_neuron, weight)=(0, 7.06333827972412109375e+00) (1, -2.48744988441467285156e+00) (2, 2.01921062469482421875e+01) (3, -1.27259069824218750000e+03) (4, 1.38238684082031250000e+03) (5, 6.88319015502929687500e+00) (0, 9.06848788261413574219e-01) (1, 1.10761022567749023438e+00) (2, 3.12197595834732055664e-01) (3, 3.01755199432373046875e+01) (4, -3.97730636596679687500e+01) (5, 4.97826147079467773438e+00) (0, 1.72176456451416015625e+01) (1, -5.92360273003578186035e-02) (2, -4.12376761436462402344e-01) (3, -2.83065776824951171875e+01) (4, 8.72611343860626220703e-01) (5, -5.59377193450927734375e+00) (0, 1.26914947509765625000e+02) (1, 1.99230492115020751953e+00) (2, -5.55942440032958984375e+00) (3, -3.18322021484375000000e+02) (4, 2.24962326049804687500e+02) (5, 5.31671822071075439453e-01) (0, 9.83889709472656250000e+02) (1, 1.48010229492187500000e+03) (2, 1.06974157714843750000e+03) (3, -1.38193527221679687500e+02) (4, -8.86764953613281250000e+02) (5, -1.48406713867187500000e+03) (0, -1.61958751678466796875e+01) (1, -3.06902170181274414062e+00) (2, -3.31796884536743164062e-01) (3, 8.52788818359375000000e+02) (4, -1.55037794113159179688e+01) (5, 1.29207992553710937500e+01) (0, 4.23194742202758789062e+00) (1, -1.39468841552734375000e+01) (2, -4.24152255058288574219e-01) (3, -6.56355133056640625000e+01) (4, -9.93900203704833984375e+00) (5, 1.83028182983398437500e+01) (0, 1.87402744293212890625e+01) (1, -1.23184146881103515625e+01) (2, 1.78128795623779296875e+01) (3, -2.55732025146484375000e+02) (4, 5.28368835449218750000e+01) (5, 1.34117374420166015625e+01) (0, -2.60796546936035156250e+00) (1, -2.86058783531188964844e-01) (2, 1.47785529494285583496e-01) (3, -4.00786323547363281250e+01) (4, -2.79009652137756347656e+00) (5, 4.61458921432495117188e+00) (0, 3.70899543762207031250e+01) (1, -1.64276237487792968750e+01) (2, 1.15699138641357421875e+01) (3, -1.51182312011718750000e+02) (4, 2.67978286743164062500e+01) (5, 7.26574659347534179688e+00) (6, -1.47773095703125000000e+03) (7, 1.50000000000000000000e+03) (8, 3.30325714111328125000e+02) (9, -1.49768713378906250000e+03) (10, 1.25197570800781250000e+03) (11, 1.04052062988281250000e+03) (12, 1.44680432128906250000e+03) (13, 1.24922827148437500000e+03) (14, -3.36000885009765625000e+02) (15, 1.50000000000000000000e+03) (16, 1.28554677963256835938e+01) (6, 1.49116198730468750000e+03) (7, -1.49864379882812500000e+03) (8, -1.50000000000000000000e+03) (9, 1.49337207031250000000e+03) (10, 4.17698287963867187500e+01) (11, 1.49998706054687500000e+03) (12, -1.49999328613281250000e+03) (13, -1.50000000000000000000e+03) (14, -1.49155627441406250000e+03) (15, -1.50000000000000000000e+03) (16, 1.45872729492187500000e+03) (6, -1.50000000000000000000e+03) (7, 1.49988671875000000000e+03) (8, 1.49927050781250000000e+03) (9, -1.50000000000000000000e+03) (10, -3.43232879638671875000e+02) (11, -1.50000000000000000000e+03) (12, 1.45804492187500000000e+03) (13, 1.19050659179687500000e+03) (14, 1.45811328125000000000e+03) (15, 1.38573937988281250000e+03) (16, -5.93412101268768310547e-01) (6, -1.49999389648437500000e+03) (7, 1.50000000000000000000e+03) (8, 1.39267419433593750000e+03) (9, -1.48286413574218750000e+03) (10, -1.46601623535156250000e+03) (11, -1.30316149902343750000e+03) (12, 1.49999804687500000000e+03) (13, 1.49696191406250000000e+03) (14, 1.47288647460937500000e+03) (15, 1.50000000000000000000e+03) (16, 2.80179810523986816406e+00) (6, 1.50000000000000000000e+03) (7, -1.50000000000000000000e+03) (8, -6.31639526367187500000e+02) (9, 1.50000000000000000000e+03) (10, 1.50000000000000000000e+03) (11, 1.50000000000000000000e+03) (12, -1.65925964355468750000e+02) (13, -9.17569030761718750000e+02) (14, -3.60866699218750000000e+02) (15, -1.50000000000000000000e+03) (16, -1.23194787597656250000e+03) (17, -2.09338575601577758789e-01) (18, 1.46634340286254882812e+00) (19, -5.85656106472015380859e-01) (20, -2.19429031014442443848e-01) (21, 6.32604807615280151367e-02) (22, 1.03690698742866516113e-01) 
